FIndActionHog.obj : error LNK2019: unresolved external symbol "void __cdecl cv::fastFree(void *)" (?fastFree@cv@@YAXPAX@Z) referenced in function "public: __thiscall cv::Mat::~Mat(void)" (??1Mat@cv@@QAE@XZ)
getImages.obj : error LNK2001: unresolved external symbol "void __cdecl cv::fastFree(void *)" (?fastFree@cv@@YAXPAX@Z)
FIndActionHog.obj : error LNK2019: unresolved external symbol "private: char * __thiscall cv::String::allocate(unsigned int)" (?allocate@String@cv@@AAEPADI@Z) referenced in function "public: __thiscall cv::String::String(char const *)" (??0String@cv@@QAE@PBD@Z)
getImages.obj : error LNK2001: unresolved external symbol "private: char * __thiscall cv::String::allocate(unsigned int)" (?allocate@String@cv@@AAEPADI@Z)
FIndActionHog.obj : error LNK2019: unresolved external symbol "private: void __thiscall cv::String::deallocate(void)" (?deallocate@String@cv@@AAEXXZ) referenced in function "public: __thiscall cv::String::~String(void)" (??1String@cv@@QAE@XZ)
getImages.obj : error LNK2001: unresolved external symbol "private: void __thiscall cv::String::deallocate(void)" (?deallocate@String@cv@@AAEXXZ)
FIndActionHog.obj : error LNK2019: unresolved external symbol "void __cdecl cv::error(int,class cv::String const &,char const *,char const *,int)" (?error@cv@@YAXHABVString@1@PBD1H@Z) referenced in function "public: __thiscall cv::Mat::Mat(class cv::Mat &&)" (??0Mat@cv@@QAE@$$QAV01@@Z)
getImages.obj : error LNK2001: unresolved external symbol "void __cdecl cv::error(int,class cv::String const &,char const *,char const *,int)" (?error@cv@@YAXHABVString@1@PBD1H@Z)
FIndActionHog.obj : error LNK2019: unresolved external symbol "public: class cv::MatExpr __thiscall cv::Mat::mul(class cv::_InputArray const &,double)const " (?mul@Mat@cv@@QBE?AVMatExpr@2@ABV_InputArray@2@N@Z) referenced in function "int __cdecl computeHog(class cv::Mat,class cv::Mat)" (?computeHog@@YAHVMat@cv@@0@Z)
FIndActionHog.obj : error LNK2019: unresolved external symbol "public: void __thiscall cv::Mat::create(int,int const *,int)" (?create@Mat@cv@@QAEXHPBHH@Z) referenced in function "public: void __thiscall cv::Mat::create(int,int,int)" (?create@Mat@cv@@QAEXHHH@Z)
FIndActionHog.obj : error LNK2019: unresolved external symbol "public: void __thiscall cv::Mat::deallocate(void)" (?deallocate@Mat@cv@@QAEXXZ) referenced in function "public: void __thiscall cv::Mat::release(void)" (?release@Mat@cv@@QAEXXZ)
getImages.obj : error LNK2001: unresolved external symbol "public: void __thiscall cv::Mat::deallocate(void)" (?deallocate@Mat@cv@@QAEXXZ)
FIndActionHog.obj : error LNK2019: unresolved external symbol "public: void __thiscall cv::Mat::copySize(class cv::Mat const &)" (?copySize@Mat@cv@@QAEXABV12@@Z) referenced in function "public: __thiscall cv::Mat::Mat(class cv::Mat const &)" (??0Mat@cv@@QAE@ABV01@@Z)
getImages.obj : error LNK2001: unresolved external symbol "public: void __thiscall cv::Mat::copySize(class cv::Mat const &)" (?copySize@Mat@cv@@QAEXABV12@@Z)
FIndActionHog.obj : error LNK2019: unresolved external symbol "public: __thiscall cv::UMat::~UMat(void)" (??1UMat@cv@@QAE@XZ) referenced in function "public: virtual __thiscall cv::HOGDescriptor::~HOGDescriptor(void)" (??1HOGDescriptor@cv@@UAE@XZ)
FIndActionHog.obj : error LNK2019: unresolved external symbol "class cv::MatExpr __cdecl cv::operator-(class cv::Mat const &,class cv::Mat const &)" (??Gcv@@YA?AVMatExpr@0@ABVMat@0@0@Z) referenced in function "int __cdecl computeHog(class cv::Mat,class cv::Mat)" (?computeHog@@YAHVMat@cv@@0@Z)
FIndActionHog.obj : error LNK2019: unresolved external symbol "class cv::Scalar_<double> __cdecl cv::sum(class cv::_InputArray const &)" (?sum@cv@@YA?AV?$Scalar_@N@1@ABV_InputArray@1@@Z) referenced in function "int __cdecl computeHog(class cv::Mat,class cv::Mat)" (?computeHog@@YAHVMat@cv@@0@Z)
FIndActionHog.obj : error LNK2019: unresolved external symbol "void __cdecl cv::sqrt(class cv::_InputArray const &,class cv::_OutputArray const &)" (?sqrt@cv@@YAXABV_InputArray@1@ABV_OutputArray@1@@Z) referenced in function "int __cdecl computeHog(class cv::Mat,class cv::Mat)" (?computeHog@@YAHVMat@cv@@0@Z)
FIndActionHog.obj : error LNK2019: unresolved external symbol "class cv::Mat __cdecl cv::imread(class cv::String const &,int)" (?imread@cv@@YA?AVMat@1@ABVString@1@H@Z) referenced in function _main
FIndActionHog.obj : error LNK2001: unresolved external symbol "public: virtual void __thiscall cv::HOGDescriptor::setSVMDetector(class cv::_InputArray const &)" (?setSVMDetector@HOGDescriptor@cv@@UAEXABV_InputArray@2@@Z)
FIndActionHog.obj : error LNK2001: unresolved external symbol "public: virtual bool __thiscall cv::HOGDescriptor::read(class cv::FileNode &)" (?read@HOGDescriptor@cv@@UAE_NAAVFileNode@2@@Z)
FIndActionHog.obj : error LNK2001: unresolved external symbol "public: virtual void __thiscall cv::HOGDescriptor::write(class cv::FileStorage &,class cv::String const &)const " (?write@HOGDescriptor@cv@@UBEXAAVFileStorage@2@ABVString@2@@Z)
FIndActionHog.obj : error LNK2001: unresolved external symbol "public: virtual bool __thiscall cv::HOGDescriptor::load(class cv::String const &,class cv::String const &)" (?load@HOGDescriptor@cv@@UAE_NABVString@2@0@Z)
FIndActionHog.obj : error LNK2001: unresolved external symbol "public: virtual void __thiscall cv::HOGDescriptor::save(class cv::String const &,class cv::String const &)const " (?save@HOGDescriptor@cv@@UBEXABVString@2@0@Z)
FIndActionHog.obj : error LNK2001: unresolved external symbol "public: virtual void __thiscall cv::HOGDescriptor::copyTo(struct cv::HOGDescriptor &)const " (?copyTo@HOGDescriptor@cv@@UBEXAAU12@@Z)
FIndActionHog.obj : error LNK2019: unresolved external symbol "public: virtual void __thiscall cv::HOGDescriptor::compute(class cv::_InputArray const &,class std::vector<float,class std::allocator<float> > &,class cv::Size_<int>,class cv::Size_<int>,class std::vector<class cv::Point_<int>,class std::allocator<class cv::Point_<int> > > const &)const " (?compute@HOGDescriptor@cv@@UBEXABV_InputArray@2@AAV?$vector@MV?$allocator@M@std@@@std@@V?$Size_@H@2@2ABV?$vector@V?$Point_@H@cv@@V?$allocator@V?$Point_@H@cv@@@std@@@5@@Z) referenced in function "int __cdecl computeHog(class cv::Mat,class cv::Mat)" (?computeHog@@YAHVMat@cv@@0@Z)
FIndActionHog.obj : error LNK2001: unresolved external symbol "public: virtual void __thiscall cv::HOGDescriptor::detect(class cv::Mat const &,class std::vector<class cv::Point_<int>,class std::allocator<class cv::Point_<int> > > &,class std::vector<double,class std::allocator<double> > &,double,class cv::Size_<int>,class cv::Size_<int>,class std::vector<class cv::Point_<int>,class std::allocator<class cv::Point_<int> > > const &)const " (?detect@HOGDescriptor@cv@@UBEXABVMat@2@AAV?$vector@V?$Point_@H@cv@@V?$allocator@V?$Point_@H@cv@@@std@@@std@@AAV?$vector@NV?$allocator@N@std@@@5@NV?$Size_@H@2@3ABV45@@Z)
FIndActionHog.obj : error LNK2001: unresolved external symbol "public: virtual void __thiscall cv::HOGDescriptor::detect(class cv::Mat const &,class std::vector<class cv::Point_<int>,class std::allocator<class cv::Point_<int> > > &,double,class cv::Size_<int>,class cv::Size_<int>,class std::vector<class cv::Point_<int>,class std::allocator<class cv::Point_<int> > > const &)const " (?detect@HOGDescriptor@cv@@UBEXABVMat@2@AAV?$vector@V?$Point_@H@cv@@V?$allocator@V?$Point_@H@cv@@@std@@@std@@NV?$Size_@H@2@2ABV45@@Z)
FIndActionHog.obj : error LNK2001: unresolved external symbol "public: virtual void __thiscall cv::HOGDescriptor::detectMultiScale(class cv::_InputArray const &,class std::vector<class cv::Rect_<int>,class std::allocator<class cv::Rect_<int> > > &,class std::vector<double,class std::allocator<double> > &,double,class cv::Size_<int>,class cv::Size_<int>,double,double,bool)const " (?detectMultiScale@HOGDescriptor@cv@@UBEXABV_InputArray@2@AAV?$vector@V?$Rect_@H@cv@@V?$allocator@V?$Rect_@H@cv@@@std@@@std@@AAV?$vector@NV?$allocator@N@std@@@5@NV?$Size_@H@2@3NN_N@Z)
FIndActionHog.obj : error LNK2001: unresolved external symbol "public: virtual void __thiscall cv::HOGDescriptor::detectMultiScale(class cv::_InputArray const &,class std::vector<class cv::Rect_<int>,class std::allocator<class cv::Rect_<int> > > &,double,class cv::Size_<int>,class cv::Size_<int>,double,double,bool)const " (?detectMultiScale@HOGDescriptor@cv@@UBEXABV_InputArray@2@AAV?$vector@V?$Rect_@H@cv@@V?$allocator@V?$Rect_@H@cv@@@std@@@std@@NV?$Size_@H@2@2NN_N@Z)
FIndActionHog.obj : error LNK2001: unresolved external symbol "public: virtual void __thiscall cv::HOGDescriptor::computeGradient(class cv::Mat const &,class cv::Mat &,class cv::Mat &,class cv::Size_<int>,class cv::Size_<int>)const " (?computeGradient@HOGDescriptor@cv@@UBEXABVMat@2@AAV32@1V?$Size_@H@2@2@Z)
FIndActionHog.obj : error LNK2001: unresolved external symbol "public: virtual void __thiscall cv::HOGDescriptor::detectROI(class cv::Mat const &,class std::vector<class cv::Point_<int>,class std::allocator<class cv::Point_<int> > > const &,class std::vector<class cv::Point_<int>,class std::allocator<class cv::Point_<int> > > &,class std::vector<double,class std::allocator<double> > &,double,class cv::Size_<int>,class cv::Size_<int>)const " (?detectROI@HOGDescriptor@cv@@UBEXABVMat@2@ABV?$vector@V?$Point_@H@cv@@V?$allocator@V?$Point_@H@cv@@@std@@@std@@AAV45@AAV?$vector@NV?$allocator@N@std@@@5@NV?$Size_@H@2@4@Z)
FIndActionHog.obj : error LNK2001: unresolved external symbol "public: virtual void __thiscall cv::HOGDescriptor::detectMultiScaleROI(class cv::Mat const &,class std::vector<class cv::Rect_<int>,class std::allocator<class cv::Rect_<int> > > &,class std::vector<struct cv::DetectionROI,class std::allocator<struct cv::DetectionROI> > &,double,int)const " (?detectMultiScaleROI@HOGDescriptor@cv@@UBEXABVMat@2@AAV?$vector@V?$Rect_@H@cv@@V?$allocator@V?$Rect_@H@cv@@@std@@@std@@AAV?$vector@UDetectionROI@cv@@V?$allocator@UDetectionROI@cv@@@std@@@5@NH@Z)
getImages.obj : error LNK2019: unresolved external symbol "class cv::_InputOutputArray const & __cdecl cv::noArray(void)" (?noArray@cv@@YAABV_InputOutputArray@1@XZ) referenced in function "int __cdecl ffs(void)" (?ffs@@YAHXZ)
getImages.obj : error LNK2019: unresolved external symbol "public: void __thiscall cv::Mat::copyTo(class cv::_OutputArray const &)const " (?copyTo@Mat@cv@@QBEXABV_OutputArray@2@@Z) referenced in function "int __cdecl ffs(void)" (?ffs@@YAHXZ)
getImages.obj : error LNK2019: unresolved external symbol "void __cdecl cv::bitwise_or(class cv::_InputArray const &,class cv::_InputArray const &,class cv::_OutputArray const &,class cv::_InputArray const &)" (?bitwise_or@cv@@YAXABV_InputArray@1@0ABV_OutputArray@1@0@Z) referenced in function "int __cdecl ffs(void)" (?ffs@@YAHXZ)
getImages.obj : error LNK2019: unresolved external symbol "void __cdecl cv::bitwise_not(class cv::_InputArray const &,class cv::_OutputArray const &,class cv::_InputArray const &)" (?bitwise_not@cv@@YAXABV_InputArray@1@ABV_OutputArray@1@0@Z) referenced in function "int __cdecl ffs(void)" (?ffs@@YAHXZ)
getImages.obj : error LNK2019: unresolved external symbol _cvCreateImageHeader referenced in function "int __cdecl ffs(void)" (?ffs@@YAHXZ)
getImages.obj : error LNK2019: unresolved external symbol _cvReleaseImageHeader referenced in function "int __cdecl ffs(void)" (?ffs@@YAHXZ)
getImages.obj : error LNK2019: unresolved external symbol "class cv::Mat __cdecl cv::cvarrToMat(void const *,bool,bool,int,class cv::AutoBuffer<double,136> *)" (?cvarrToMat@cv@@YA?AVMat@1@PBX_N1HPAV?$AutoBuffer@N$0II@@1@@Z) referenced in function "int __cdecl ffs(void)" (?ffs@@YAHXZ)
getImages.obj : error LNK2019: unresolved external symbol "bool __cdecl cv::imwrite(class cv::String const &,class cv::_InputArray const &,class std::vector<int,class std::allocator<int> > const &)" (?imwrite@cv@@YA_NABVString@1@ABV_InputArray@1@ABV?$vector@HV?$allocator@H@std@@@std@@@Z) referenced in function "int __cdecl ffs(void)" (?ffs@@YAHXZ)
getImages.obj : error LNK2019: unresolved external symbol "void __cdecl cv::rectangle(class cv::_InputOutputArray const &,class cv::Point_<int>,class cv::Point_<int>,class cv::Scalar_<double> const &,int,int,int)" (?rectangle@cv@@YAXABV_InputOutputArray@1@V?$Point_@H@1@1ABV?$Scalar_@N@1@HHH@Z) referenced in function "class cv::Mat __cdecl processVideo(class cv::Mat)" (?processVideo@@YA?AVMat@cv@@V12@@Z)
getImages.obj : error LNK2019: unresolved external symbol "void __cdecl cv::putText(class cv::_InputOutputArray const &,class cv::String const &,class cv::Point_<int>,int,double,class cv::Scalar_<double>,int,int,bool)" (?putText@cv@@YAXABV_InputOutputArray@1@ABVString@1@V?$Point_@H@1@HNV?$Scalar_@N@1@HH_N@Z) referenced in function "class cv::Mat __cdecl processVideo(class cv::Mat)" (?processVideo@@YA?AVMat@cv@@V12@@Z)
getImages.obj : error LNK2019: unresolved external symbol _cvCvtColor referenced in function "int __cdecl ffs(void)" (?ffs@@YAHXZ)
getImages.obj : error LNK2019: unresolved external symbol "public: __thiscall cv::VideoWriter::VideoWriter(void)" (??0VideoWriter@cv@@QAE@XZ) referenced in function "int __cdecl ffs(void)" (?ffs@@YAHXZ)
getImages.obj : error LNK2019: unresolved external symbol "public: virtual __thiscall cv::VideoWriter::~VideoWriter(void)" (??1VideoWriter@cv@@UAE@XZ) referenced in function "int __cdecl ffs(void)" (?ffs@@YAHXZ)
getImages.obj : error LNK2019: unresolved external symbol "void __cdecl cv::imshow(class cv::String const &,class cv::_InputArray const &)" (?imshow@cv@@YAXABVString@1@ABV_InputArray@1@@Z) referenced in function "int __cdecl ffs(void)" (?ffs@@YAHXZ)
getImages.obj : error LNK2019: unresolved external symbol _cvDestroyWindow referenced in function "int __cdecl ffs(void)" (?ffs@@YAHXZ)
getImages.obj : error LNK2019: unresolved external symbol _cvWaitKey referenced in function "int __cdecl ffs(void)" (?ffs@@YAHXZ)
getImages.obj : error LNK2019: unresolved external symbol "struct cv::Ptr<class cv::BackgroundSubtractorMOG2> __cdecl cv::createBackgroundSubtractorMOG2(int,double,bool)" (?createBackgroundSubtractorMOG2@cv@@YA?AU?$Ptr@VBackgroundSubtractorMOG2@cv@@@1@HN_N@Z) referenced in function "int __cdecl ffs(void)" (?ffs@@YAHXZ)
getImages.obj : error LNK2019: unresolved external symbol __imp__oniInitialize referenced in function "public: static enum openni::Status __cdecl openni::OpenNI::initialize(void)" (?initialize@OpenNI@openni@@SA?AW4Status@2@XZ)
getImages.obj : error LNK2019: unresolved external symbol __imp__oniShutdown referenced in function "public: static void __cdecl openni::OpenNI::shutdown(void)" (?shutdown@OpenNI@openni@@SAXXZ)
getImages.obj : error LNK2019: unresolved external symbol __imp__oniWaitForAnyStream referenced in function "public: static enum openni::Status __cdecl openni::OpenNI::waitForAnyStream(class openni::VideoStream * *,int,int *,int)" (?waitForAnyStream@OpenNI@openni@@SA?AW4Status@2@PAPAVVideoStream@2@HPAHH@Z)
getImages.obj : error LNK2019: unresolved external symbol __imp__oniDeviceOpen referenced in function "public: enum openni::Status __thiscall openni::Device::open(char const *)" (?open@Device@openni@@QAE?AW4Status@2@PBD@Z)
getImages.obj : error LNK2019: unresolved external symbol __imp__oniDeviceClose referenced in function "public: void __thiscall openni::Device::close(void)" (?close@Device@openni@@QAEXXZ)
getImages.obj : error LNK2019: unresolved external symbol __imp__oniDeviceGetSensorInfo referenced in function "public: class openni::SensorInfo const * __thiscall openni::Device::getSensorInfo(enum openni::SensorType)" (?getSensorInfo@Device@openni@@QAEPBVSensorInfo@2@W4SensorType@2@@Z)
getImages.obj : error LNK2019: unresolved external symbol __imp__oniDeviceGetInfo referenced in function "private: enum openni::Status __thiscall openni::Device::_setHandle(struct _OniDevice *)" (?_setHandle@Device@openni@@AAE?AW4Status@2@PAU_OniDevice@@@Z)
getImages.obj : error LNK2019: unresolved external symbol __imp__oniDeviceCreateStream referenced in function "public: enum openni::Status __thiscall openni::VideoStream::create(class openni::Device const &,enum openni::SensorType)" (?create@VideoStream@openni@@QAE?AW4Status@2@ABVDevice@2@W4SensorType@2@@Z)
getImages.obj : error LNK2019: unresolved external symbol __imp__oniDeviceEnableDepthColorSync referenced in function "public: enum openni::Status __thiscall openni::Device::setDepthColorSyncEnabled(bool)" (?setDepthColorSyncEnabled@Device@openni@@QAE?AW4Status@2@_N@Z)
getImages.obj : error LNK2019: unresolved external symbol __imp__oniDeviceDisableDepthColorSync referenced in function "public: enum openni::Status __thiscall openni::Device::setDepthColorSyncEnabled(bool)" (?setDepthColorSyncEnabled@Device@openni@@QAE?AW4Status@2@_N@Z)
getImages.obj : error LNK2019: unresolved external symbol __imp__oniDeviceIsPropertySupported referenced in function "public: bool __thiscall openni::Device::isPropertySupported(int)const " (?isPropertySupported@Device@openni@@QBE_NH@Z)
getImages.obj : error LNK2019: unresolved external symbol __imp__oniDeviceIsCommandSupported referenced in function "public: bool __thiscall openni::Device::isCommandSupported(int)const " (?isCommandSupported@Device@openni@@QBE_NH@Z)
getImages.obj : error LNK2019: unresolved external symbol __imp__oniStreamDestroy referenced in function "public: void __thiscall openni::VideoStream::destroy(void)" (?destroy@VideoStream@openni@@QAEXXZ)
getImages.obj : error LNK2019: unresolved external symbol __imp__oniStreamGetSensorInfo referenced in function "private: void __thiscall openni::VideoStream::_setHandle(struct _OniStream *)" (?_setHandle@VideoStream@openni@@AAEXPAU_OniStream@@@Z)
getImages.obj : error LNK2019: unresolved external symbol __imp__oniStreamStart referenced in function "public: enum openni::Status __thiscall openni::VideoStream::start(void)" (?start@VideoStream@openni@@QAE?AW4Status@2@XZ)
getImages.obj : error LNK2019: unresolved external symbol __imp__oniStreamStop referenced in function "public: void __thiscall openni::VideoStream::stop(void)" (?stop@VideoStream@openni@@QAEXXZ)
getImages.obj : error LNK2019: unresolved external symbol __imp__oniStreamReadFrame referenced in function "public: enum openni::Status __thiscall openni::VideoStream::readFrame(class openni::VideoFrameRef *)" (?readFrame@VideoStream@openni@@QAE?AW4Status@2@PAVVideoFrameRef@2@@Z)
getImages.obj : error LNK2019: unresolved external symbol __imp__oniStreamSetProperty referenced in function "public: enum openni::Status __thiscall openni::VideoStream::setProperty(int,void const *,int)" (?setProperty@VideoStream@openni@@QAE?AW4Status@2@HPBXH@Z)
getImages.obj : error LNK2019: unresolved external symbol __imp__oniStreamIsPropertySupported referenced in function "public: bool __thiscall openni::VideoStream::isPropertySupported(int)const " (?isPropertySupported@VideoStream@openni@@QBE_NH@Z)
getImages.obj : error LNK2019: unresolved external symbol __imp__oniFrameRelease referenced in function "public: void __thiscall openni::VideoFrameRef::release(void)" (?release@VideoFrameRef@openni@@QAEXXZ)
C:\Users\ogzkh\Source\Repos\Daily-Activity-Monitoring-for-Elderly-People\Daily-Activity-Monitoring\Daily-Activity-Monitoring\Debug\Daily-Activity-Monitoring.exe : fatal error LNK1120: 64 unresolved externals
